=== Run information ===

Scheme:weka.classifiers.trees.J48 -C 0.25 -M 2
Relation:     zou-weka.filters.unsupervised.attribute.Remove-R2-4,6-8,10-12
Instances:    1345
Attributes:   5
              SMV
              SMV-Z
              SMV-H
              SMV-gyr
              class
Test mode:10-fold cross-validation

=== Classifier model (full training set) ===

J48 pruned tree
------------------

SMV <= 1.48268
|   SMV-Z <= -1.305932
|   |   SMV-gyr <= 1.190809: zou (3.0/1.0)
|   |   SMV-gyr > 1.190809: zhuan (4.0/1.0)
|   SMV-Z > -1.305932: jing (192.0)
SMV > 1.48268
|   SMV-gyr <= 5.10058
|   |   SMV-gyr <= 0.744081
|   |   |   SMV <= 10.815808
|   |   |   |   SMV-H <= 8.368769
|   |   |   |   |   SMV-Z <= -4.699473: pao (36.0/1.0)
|   |   |   |   |   SMV-Z > -4.699473
|   |   |   |   |   |   SMV-H <= 6.891587: diedao (25.0)
|   |   |   |   |   |   SMV-H > 6.891587: zhuan (4.0/1.0)
|   |   |   |   SMV-H > 8.368769
|   |   |   |   |   SMV-gyr <= 0.557647
|   |   |   |   |   |   SMV <= 10.167312
|   |   |   |   |   |   |   SMV-Z <= -7.242509: pao (9.0/1.0)
|   |   |   |   |   |   |   SMV-Z > -7.242509
|   |   |   |   |   |   |   |   SMV <= 5.038885: pao (5.0/1.0)
|   |   |   |   |   |   |   |   SMV > 5.038885
|   |   |   |   |   |   |   |   |   SMV-H <= 10.686077: zou (20.0)
|   |   |   |   |   |   |   |   |   SMV-H > 10.686077
|   |   |   |   |   |   |   |   |   |   SMV <= 8.074124: pao (2.0)
|   |   |   |   |   |   |   |   |   |   SMV > 8.074124: zou (3.0)
|   |   |   |   |   |   SMV > 10.167312: pao (10.0/1.0)
|   |   |   |   |   SMV-gyr > 0.557647: zou (10.0)
|   |   |   SMV > 10.815808
|   |   |   |   SMV-H <= 12.486844
|   |   |   |   |   SMV-Z <= -7.986091
|   |   |   |   |   |   SMV <= 15.26721: pao (18.0)
|   |   |   |   |   |   SMV > 15.26721
|   |   |   |   |   |   |   SMV-Z <= -15.938175: pao (11.0/1.0)
|   |   |   |   |   |   |   SMV-Z > -15.938175
|   |   |   |   |   |   |   |   SMV-gyr <= 0.523608: zhuan (10.0)
|   |   |   |   |   |   |   |   SMV-gyr > 0.523608: pao (2.0)
|   |   |   |   |   SMV-Z > -7.986091
|   |   |   |   |   |   SMV <= 13.631282: zhuan (46.0/3.0)
|   |   |   |   |   |   SMV > 13.631282
|   |   |   |   |   |   |   SMV-Z <= -6.636118: zhuan (5.0)
|   |   |   |   |   |   |   SMV-Z > -6.636118: zou (3.0)
|   |   |   |   SMV-H > 12.486844: pao (48.0)
|   |   SMV-gyr > 0.744081
|   |   |   SMV-H <= 16.338006
|   |   |   |   SMV <= 10.495723
|   |   |   |   |   SMV-H <= 3.004662
|   |   |   |   |   |   SMV <= 7.308634
|   |   |   |   |   |   |   SMV-Z <= -6.949763: zou (6.0)
|   |   |   |   |   |   |   SMV-Z > -6.949763: diedao (3.0)
|   |   |   |   |   |   SMV > 7.308634: pao (9.0)
|   |   |   |   |   SMV-H > 3.004662
|   |   |   |   |   |   SMV-Z <= -2.611825: zou (383.0/45.0)
|   |   |   |   |   |   SMV-Z > -2.611825
|   |   |   |   |   |   |   SMV-Z <= -0.255602
|   |   |   |   |   |   |   |   SMV-gyr <= 2.504199: zou (24.0/4.0)
|   |   |   |   |   |   |   |   SMV-gyr > 2.504199: zhuan (11.0/3.0)
|   |   |   |   |   |   |   SMV-Z > -0.255602: zou (22.0/1.0)
|   |   |   |   SMV > 10.495723
|   |   |   |   |   SMV-H <= 9.050582
|   |   |   |   |   |   SMV-Z <= -12.289414
|   |   |   |   |   |   |   SMV <= 13.70614
|   |   |   |   |   |   |   |   SMV-Z <= -13.111711: zou (4.0)
|   |   |   |   |   |   |   |   SMV-Z > -13.111711: pao (3.0)
|   |   |   |   |   |   |   SMV > 13.70614: pao (16.0/1.0)
|   |   |   |   |   |   SMV-Z > -12.289414
|   |   |   |   |   |   |   SMV-H <= 6.291501: pao (19.0/7.0)
|   |   |   |   |   |   |   SMV-H > 6.291501
|   |   |   |   |   |   |   |   SMV-Z <= -6.362232
|   |   |   |   |   |   |   |   |   SMV-Z <= -8.917963: zhuan (4.0/1.0)
|   |   |   |   |   |   |   |   |   SMV-Z > -8.917963
|   |   |   |   |   |   |   |   |   |   SMV-gyr <= 3.718373: zou (6.0)
|   |   |   |   |   |   |   |   |   |   SMV-gyr > 3.718373: zhuan (2.0)
|   |   |   |   |   |   |   |   SMV-Z > -6.362232: zhuan (13.0)
|   |   |   |   |   SMV-H > 9.050582
|   |   |   |   |   |   SMV-Z <= -3.679301
|   |   |   |   |   |   |   SMV-Z <= -9.224861
|   |   |   |   |   |   |   |   SMV-gyr <= 1.092255: pao (3.0)
|   |   |   |   |   |   |   |   SMV-gyr > 1.092255: zou (21.0/4.0)
|   |   |   |   |   |   |   SMV-Z > -9.224861
|   |   |   |   |   |   |   |   SMV-gyr <= 2.733494: zou (27.0/1.0)
|   |   |   |   |   |   |   |   SMV-gyr > 2.733494
|   |   |   |   |   |   |   |   |   SMV-H <= 12.990472
|   |   |   |   |   |   |   |   |   |   SMV <= 11.663807: zou (2.0)
|   |   |   |   |   |   |   |   |   |   SMV > 11.663807: zhuan (6.0/1.0)
|   |   |   |   |   |   |   |   |   SMV-H > 12.990472: zou (9.0)
|   |   |   |   |   |   SMV-Z > -3.679301
|   |   |   |   |   |   |   SMV-Z <= 0.456154
|   |   |   |   |   |   |   |   SMV <= 12.912371: pao (3.0/1.0)
|   |   |   |   |   |   |   |   SMV > 12.912371: zhuan (4.0)
|   |   |   |   |   |   |   SMV-Z > 0.456154: zou (4.0/1.0)
|   |   |   SMV-H > 16.338006: pao (36.0/1.0)
|   SMV-gyr > 5.10058
|   |   SMV-H <= 14.831807
|   |   |   SMV-gyr <= 5.617412
|   |   |   |   SMV <= 8.374194
|   |   |   |   |   SMV-Z <= -11.302538: zou (5.0/1.0)
|   |   |   |   |   SMV-Z > -11.302538: zhuan (19.0/3.0)
|   |   |   |   SMV > 8.374194
|   |   |   |   |   SMV-Z <= -7.538116: pao (8.0/1.0)
|   |   |   |   |   SMV-Z > -7.538116
|   |   |   |   |   |   SMV-Z <= -5.241043: zou (5.0/1.0)
|   |   |   |   |   |   SMV-Z > -5.241043: zhuan (9.0/1.0)
|   |   |   SMV-gyr > 5.617412
|   |   |   |   SMV-Z <= -6.315568
|   |   |   |   |   SMV-H <= 6.46285
|   |   |   |   |   |   SMV-Z <= -12.289414: zhuan (5.0/1.0)
|   |   |   |   |   |   SMV-Z > -12.289414: pao (9.0)
|   |   |   |   |   SMV-H > 6.46285
|   |   |   |   |   |   SMV-gyr <= 5.990192: zhuan (11.0/1.0)
|   |   |   |   |   |   SMV-gyr > 5.990192
|   |   |   |   |   |   |   SMV-gyr <= 6.153805: pao (3.0)
|   |   |   |   |   |   |   SMV-gyr > 6.153805: zhuan (46.0/9.0)
|   |   |   |   SMV-Z > -6.315568
|   |   |   |   |   SMV-H <= 2.975066
|   |   |   |   |   |   SMV-Z <= -3.466123: pao (3.0)
|   |   |   |   |   |   SMV-Z > -3.466123: zhuan (3.0)
|   |   |   |   |   SMV-H > 2.975066: zhuan (96.0/2.0)
|   |   SMV-H > 14.831807: pao (17.0/2.0)

Number of Leaves  : 	60

Size of the tree : 	119


Time taken to build model: 0.03 seconds

=== Predictions on test data ===

inst#,    actual, predicted, error, probability distribution
     1      1:zou      1:zou         *0.901  0.045  0      0      0.054
     2      1:zou      1:zou         *0.901  0.045  0      0      0.054
     3      1:zou      1:zou         *0.901  0.045  0      0      0.054
     4      1:zou      1:zou         *0.901  0.045  0      0      0.054
     5      1:zou      1:zou         *0.901  0.045  0      0      0.054
     6      1:zou      1:zou         *0.901  0.045  0      0      0.054
     7      1:zou      1:zou         *0.901  0.045  0      0      0.054
     8      1:zou      1:zou         *0.901  0.045  0      0      0.054
     9      1:zou      1:zou         *0.929  0      0      0      0.071
    10      1:zou      1:zou         *0.901  0.045  0      0      0.054
    11      1:zou      1:zou         *0.901  0.045  0      0      0.054
    12      1:zou      1:zou         *0.901  0.045  0      0      0.054
    13      1:zou      1:zou         *0.901  0.045  0      0      0.054
    14      1:zou      1:zou         *0.978  0.022  0      0      0    
    15      1:zou      1:zou         *1      0      0      0      0    
    16      1:zou      1:zou         *1      0      0      0      0    
    17      1:zou      1:zou         *0.901  0.045  0      0      0.054
    18      1:zou      1:zou         *0.901  0.045  0      0      0.054
    19      1:zou      1:zou         *0.917  0.042  0      0      0.042
    20      1:zou      2:pao      +   0     *1      0      0      0    
    21      1:zou      1:zou         *0.901  0.045  0      0      0.054
    22      1:zou      1:zou         *1      0      0      0      0    
    23      1:zou      1:zou         *0.901  0.045  0      0      0.054
    24      1:zou      1:zou         *0.901  0.045  0      0      0.054
    25      1:zou      1:zou         *0.901  0.045  0      0      0.054
    26      1:zou      2:pao      +   0     *1      0      0      0    
    27      1:zou    5:zhuan      +   0.013  0.09   0      0     *0.897
    28      1:zou      1:zou         *0.917  0.042  0      0      0.042
    29      1:zou      1:zou         *0.901  0.045  0      0      0.054
    30      1:zou    5:zhuan      +   0.013  0.09   0      0     *0.897
    31      1:zou      1:zou         *0.917  0.042  0      0      0.042
    32      1:zou      1:zou         *0.901  0.045  0      0      0.054
    33      1:zou      2:pao      +   0.25  *0.75   0      0      0    
    34      1:zou      1:zou         *0.813  0.188  0      0      0    
    35      1:zou      1:zou         *0.901  0.045  0      0      0.054
    36      1:zou      1:zou         *0.901  0.045  0      0      0.054
    37      1:zou    5:zhuan      +   0.2    0      0      0     *0.8  
    38      1:zou      1:zou         *0.901  0.045  0      0      0.054
    39      1:zou      1:zou         *1      0      0      0      0    
    40      1:zou      1:zou         *0.901  0.045  0      0      0.054
    41      1:zou      1:zou         *0.901  0.045  0      0      0.054
    42      1:zou      1:zou         *0.901  0.045  0      0      0.054
    43      1:zou      1:zou         *0.901  0.045  0      0      0.054
    44      1:zou      1:zou         *0.901  0.045  0      0      0.054
    45      1:zou      1:zou         *0.901  0.045  0      0      0.054
    46      1:zou      1:zou         *0.901  0.045  0      0      0.054
    47      1:zou      1:zou         *0.901  0.045  0      0      0.054
    48      1:zou      1:zou         *0.901  0.045  0      0      0.054
    49      1:zou      1:zou         *0.901  0.045  0      0      0.054
    50      1:zou      1:zou         *0.901  0.045  0      0      0.054
    51      1:zou      1:zou         *0.773  0.045  0      0      0.182
    52      2:pao      2:pao          0     *1      0      0      0    
    53      2:pao      2:pao          0     *1      0      0      0    
    54      2:pao      2:pao          0.063 *0.938  0      0      0    
    55      2:pao      2:pao          0.111 *0.889  0      0      0    
    56      2:pao    5:zhuan      +   0.013  0.09   0      0     *0.897
    57      2:pao      2:pao          0.063 *0.875  0      0      0.063
    58      2:pao      1:zou      +  *1      0      0      0      0    
    59      2:pao      2:pao          0     *1      0      0      0    
    60      2:pao      2:pao          0     *1      0      0      0    
    61      2:pao      1:zou      +  *0.917  0.042  0      0      0.042
    62      2:pao      2:pao          0     *1      0      0      0    
    63      2:pao    5:zhuan      +   0.013  0.09   0      0     *0.897
    64      2:pao      2:pao          0     *1      0      0      0    
    65      2:pao      2:pao          0     *0.75   0      0.25   0    
    66      2:pao      2:pao          0     *1      0      0      0    
    67      2:pao      2:pao          0     *1      0      0      0    
    68      2:pao    5:zhuan      +   0.087  0.058  0      0     *0.855
    69      2:pao      2:pao          0     *1      0      0      0    
    70      2:pao      2:pao          0     *1      0      0      0    
    71      2:pao    5:zhuan      +   0.087  0.058  0      0     *0.855
    72      2:pao      2:pao          0     *0.909  0      0      0.091
    73      2:pao      1:zou      +  *1      0      0      0      0    
    74      2:pao    5:zhuan      +   0.013  0.09   0      0     *0.897
    75      2:pao      2:pao          0     *1      0      0      0    
    76      2:pao    5:zhuan      +   0.013  0.09   0      0     *0.897
    77      2:pao    5:zhuan      +   0      0.111  0      0     *0.889
    78      2:pao      1:zou      +  *0.901  0.045  0      0      0.054
    79      2:pao    5:zhuan      +   0.013  0.09   0      0     *0.897
    80      2:pao    5:zhuan      +   0.087  0.058  0      0     *0.855
    81      2:pao    5:zhuan      +   0.013  0.09   0      0     *0.897
    82      2:pao      2:pao          0     *1      0      0      0    
    83      2:pao      1:zou      +  *0.978  0.022  0      0      0    
    84    5:zhuan      1:zou      +  *0.901  0.045  0      0      0.054
    85    5:zhuan    5:zhuan          0.013  0.09   0      0     *0.897
    86    5:zhuan    5:zhuan          0.087  0.058  0      0     *0.855
    87    5:zhuan    5:zhuan          0.143  0      0      0     *0.857
    88    5:zhuan      2:pao      +   0.063 *0.875  0      0      0.063
    89    5:zhuan    5:zhuan          0.013  0.09   0      0     *0.897
    90    5:zhuan    5:zhuan          0.087  0.058  0      0     *0.855
    91    5:zhuan    5:zhuan          0      0.25   0      0     *0.75 
    92    5:zhuan      2:pao      +   0.063 *0.875  0      0      0.063
    93    5:zhuan      1:zou      +  *0.901  0.045  0      0      0.054
    94    5:zhuan    5:zhuan          0.013  0.09   0      0     *0.897
    95    5:zhuan    5:zhuan          0      0.25   0      0     *0.75 
    96    5:zhuan    5:zhuan          0.013  0.09   0      0     *0.897
    97    5:zhuan    5:zhuan          0.013  0.09   0      0     *0.897
    98    5:zhuan      1:zou      +  *0.929  0      0      0      0.071
    99    5:zhuan      1:zou      +  *0.773  0.045  0      0      0.182
   100    5:zhuan    5:zhuan          0.013  0.09   0      0     *0.897
   101    5:zhuan    5:zhuan          0.013  0.09   0      0     *0.897
   102    5:zhuan    5:zhuan          0.013  0.09   0      0     *0.897
   103    5:zhuan    5:zhuan          0.013  0.09   0      0     *0.897
   104    5:zhuan    5:zhuan          0.087  0.058  0      0     *0.855
   105    5:zhuan    5:zhuan          0.013  0.09   0      0     *0.897
   106    5:zhuan    5:zhuan          0.013  0.09   0      0     *0.897
   107    5:zhuan    5:zhuan          0.013  0.09   0      0     *0.897
   108    5:zhuan    5:zhuan          0.013  0.09   0      0     *0.897
   109    5:zhuan    5:zhuan          0.087  0.058  0      0     *0.855
   110    5:zhuan    5:zhuan          0      0.111  0      0     *0.889
   111    5:zhuan      2:pao      +   0     *1      0      0      0    
   112    5:zhuan      1:zou      +  *0.667  0.333  0      0      0    
   113    5:zhuan    5:zhuan          0.013  0.09   0      0     *0.897
   114     3:jing     3:jing          0      0     *1      0      0    
   115     3:jing     3:jing          0      0     *1      0      0    
   116     3:jing     3:jing          0      0     *1      0      0    
   117     3:jing     3:jing          0      0     *1      0      0    
   118     3:jing     3:jing          0      0     *1      0      0    
   119     3:jing     3:jing          0      0     *1      0      0    
   120     3:jing     3:jing          0      0     *1      0      0    
   121     3:jing     3:jing          0      0     *1      0      0    
   122     3:jing     3:jing          0      0     *1      0      0    
   123     3:jing     3:jing          0      0     *1      0      0    
   124     3:jing     3:jing          0      0     *1      0      0    
   125     3:jing     3:jing          0      0     *1      0      0    
   126     3:jing     3:jing          0      0     *1      0      0    
   127     3:jing     3:jing          0      0     *1      0      0    
   128     3:jing     3:jing          0      0     *1      0      0    
   129     3:jing     3:jing          0      0     *1      0      0    
   130     3:jing     3:jing          0      0     *1      0      0    
   131     3:jing     3:jing          0      0     *1      0      0    
   132     3:jing     3:jing          0      0     *1      0      0    
   133   4:diedao   4:diedao          0      0.042  0     *0.958  0    
   134   4:diedao   4:diedao          0      0.042  0     *0.958  0    
   135   4:diedao   4:diedao          0      0.042  0     *0.958  0    
     1      1:zou      1:zou         *0.933  0.067  0      0      0    
     2      1:zou      1:zou         *0.786  0.214  0      0      0    
     3      1:zou      1:zou         *0.623  0.377  0      0      0    
     4      1:zou      1:zou         *0.916  0.04   0      0      0.044
     5      1:zou      1:zou         *0.916  0.04   0      0      0.044
     6      1:zou    5:zhuan      +   0      0      0      0     *1    
     7      1:zou      1:zou         *0.916  0.04   0      0      0.044
     8      1:zou      1:zou         *1      0      0      0      0    
     9      1:zou      1:zou         *0.933  0.067  0      0      0    
    10      1:zou      1:zou         *0.933  0.067  0      0      0    
    11      1:zou      1:zou         *0.916  0.04   0      0      0.044
    12      1:zou      1:zou         *0.916  0.04   0      0      0.044
    13      1:zou      1:zou         *0.867  0.133  0      0      0    
    14      1:zou      1:zou         *0.916  0.04   0      0      0.044
    15      1:zou      1:zou         *0.916  0.04   0      0      0.044
    16      1:zou      1:zou         *0.916  0.04   0      0      0.044
    17      1:zou      1:zou         *0.868  0.066  0      0      0.066
    18      1:zou      1:zou         *0.868  0.066  0      0      0.066
    19      1:zou      1:zou         *0.916  0.04   0      0      0.044
    20      1:zou      1:zou         *0.916  0.04   0      0      0.044
    21      1:zou      1:zou         *1      0      0      0      0    
    22      1:zou    5:zhuan      +   0.065  0      0      0     *0.935
    23      1:zou      1:zou         *0.916  0.04   0      0      0.044
    24      1:zou      2:pao      +   0     *1      0      0      0    
    25      1:zou      1:zou         *0.786  0.214  0      0      0    
    26      1:zou      1:zou         *0.916  0.04   0      0      0.044
    27      1:zou      1:zou         *0.868  0.066  0      0      0.066
    28      1:zou      1:zou         *0.868  0.066  0      0      0.066
    29      1:zou      1:zou         *0.916  0.04   0      0      0.044
    30      1:zou      1:zou         *0.916  0.04   0      0      0.044
    31      1:zou      1:zou         *1      0      0      0      0    
    32      1:zou      2:pao      +   0.015 *0.985  0      0      0    
    33      1:zou      1:zou         *0.916  0.04   0      0      0.044
    34      1:zou      1:zou         *1      0      0      0      0    
    35      1:zou    5:zhuan      +   0.1    0.1    0      0     *0.8  
    36      1:zou      1:zou         *0.916  0.04   0      0      0.044
    37      1:zou      1:zou         *0.916  0.04   0      0      0.044
    38      1:zou      1:zou         *0.916  0.04   0      0      0.044
    39      1:zou      1:zou         *0.916  0.04   0      0      0.044
    40      1:zou      1:zou         *0.623  0.377  0      0      0    
    41      1:zou      2:pao      +   0.167 *0.833  0      0      0    
    42      1:zou      1:zou         *1      0      0      0      0    
    43      1:zou    5:zhuan      +   0.1    0.1    0      0     *0.8  
    44      1:zou      1:zou         *0.916  0.04   0      0      0.044
    45      1:zou      1:zou         *0.916  0.04   0      0      0.044
    46      1:zou      1:zou         *0.868  0.066  0      0      0.066
    47      1:zou    5:zhuan      +   0.125  0.125  0      0     *0.75 
    48      1:zou      1:zou         *0.868  0.066  0      0      0.066
    49      1:zou      1:zou         *0.916  0.04   0      0      0.044
    50      1:zou      1:zou         *0.916  0.04   0      0      0.044
    51      1:zou      1:zou         *0.916  0.04   0      0      0.044
    52      2:pao      2:pao          0     *0.957  0      0.043  0    
    53      2:pao      1:zou      +  *1      0      0      0      0    
    54      2:pao      2:pao          0.015 *0.985  0      0      0    
    55      2:pao      2:pao          0.015 *0.985  0      0      0    
    56      2:pao      1:zou      +  *0.623  0.377  0      0      0    
    57      2:pao      2:pao          0     *0.957  0      0.043  0    
    58      2:pao    5:zhuan      +   0      0      0      0     *1    
    59      2:pao      2:pao          0.015 *0.985  0      0      0    
    60      2:pao    5:zhuan      +   0      0.156  0      0     *0.844
    61      2:pao      2:pao          0.167 *0.833  0      0      0    
    62      2:pao      2:pao          0     *0.957  0      0.043  0    
    63      2:pao      2:pao          0     *1      0      0      0    
    64      2:pao      2:pao          0     *1      0      0      0    
    65      2:pao      2:pao          0     *1      0      0      0    
    66      2:pao    5:zhuan      +   0      0.156  0      0     *0.844
    67      2:pao      2:pao          0     *0.957  0      0.043  0    
    68      2:pao      2:pao          0.015 *0.985  0      0      0    
    69      2:pao      2:pao          0     *0.957  0      0.043  0    
    70      2:pao      2:pao          0.015 *0.985  0      0      0    
    71      2:pao      2:pao          0     *1      0      0      0    
    72      2:pao      2:pao          0.015 *0.985  0      0      0    
    73      2:pao      2:pao          0.015 *0.985  0      0      0    
    74      2:pao      2:pao          0     *0.933  0      0      0.067
    75      2:pao      2:pao          0     *1      0      0      0    
    76      2:pao      1:zou      +  *0.623  0.377  0      0      0    
    77      2:pao      2:pao          0.015 *0.985  0      0      0    
    78      2:pao      2:pao          0     *0.867  0      0      0.133
    79      2:pao      2:pao          0     *0.9    0      0      0.1  
    80      2:pao      1:zou      +  *0.623  0.377  0      0      0    
    81      2:pao      2:pao          0     *1      0      0      0    
    82      2:pao      2:pao          0     *0.957  0      0.043  0    
    83    5:zhuan    5:zhuan          0      0      0      0     *1    
    84    5:zhuan      2:pao      +   0     *1      0      0      0    
    85    5:zhuan    5:zhuan          0      0.077  0      0     *0.923
    86    5:zhuan      2:pao      +   0     *0.867  0      0      0.133
    87    5:zhuan    5:zhuan          0      0      0      0     *1    
    88    5:zhuan      2:pao      +   0     *0.9    0      0      0.1  
    89    5:zhuan    5:zhuan          0      0      0      0     *1    
    90    5:zhuan    5:zhuan          0      0.156  0      0     *0.844
    91    5:zhuan    5:zhuan          0.065  0      0      0     *0.935
    92    5:zhuan    5:zhuan          0      0.156  0      0     *0.844
    93    5:zhuan    5:zhuan          0      0      0      0     *1    
    94    5:zhuan    5:zhuan          0      0.156  0      0     *0.844
    95    5:zhuan    5:zhuan          0      0.364  0      0     *0.636
    96    5:zhuan      2:pao      +   0     *0.933  0      0      0.067
    97    5:zhuan    5:zhuan          0      0.077  0      0     *0.923
    98    5:zhuan    5:zhuan          0.059  0      0      0     *0.941
    99    5:zhuan    5:zhuan          0      0.156  0      0     *0.844
   100    5:zhuan    5:zhuan          0      0.156  0      0     *0.844
   101    5:zhuan      1:zou      +  *0.916  0.04   0      0      0.044
   102    5:zhuan    5:zhuan          0      0.156  0      0     *0.844
   103    5:zhuan    5:zhuan          0      0      0      0     *1    
   104    5:zhuan    5:zhuan          0      0.156  0      0     *0.844
   105    5:zhuan      1:zou      +  *0.868  0.066  0      0      0.066
   106    5:zhuan    5:zhuan          0      0.156  0      0     *0.844
   107    5:zhuan    5:zhuan          0.125  0.125  0      0     *0.75 
   108    5:zhuan    5:zhuan          0      0      0      0     *1    
   109    5:zhuan      2:pao      +   0     *1      0      0      0    
   110    5:zhuan    5:zhuan          0      0      0      0     *1    
   111    5:zhuan    5:zhuan          0      0      0      0     *1    
   112    5:zhuan    5:zhuan          0      0      0      0     *1    
   113     3:jing     3:jing          0      0     *1      0      0    
   114     3:jing     3:jing          0      0     *1      0      0    
   115     3:jing     3:jing          0      0     *1      0      0    
   116     3:jing     3:jing          0      0     *1      0      0    
   117     3:jing     3:jing          0      0     *1      0      0    
   118     3:jing     3:jing          0      0     *1      0      0    
   119     3:jing     3:jing          0      0     *1      0      0    
   120     3:jing     3:jing          0      0     *1      0      0    
   121     3:jing     3:jing          0      0     *1      0      0    
   122     3:jing     3:jing          0      0     *1      0      0    
   123     3:jing     3:jing          0      0     *1      0      0    
   124     3:jing     3:jing          0      0     *1      0      0    
   125     3:jing     3:jing          0      0     *1      0      0    
   126     3:jing     3:jing          0      0     *1      0      0    
   127     3:jing     3:jing          0      0     *1      0      0    
   128     3:jing     3:jing          0      0     *1      0      0    
   129     3:jing     3:jing          0      0     *1      0      0    
   130     3:jing     3:jing          0      0     *1      0      0    
   131     3:jing     3:jing          0      0     *1      0      0    
   132     3:jing     3:jing          0      0     *1      0      0    
   133   4:diedao      1:zou      +  *0.623  0.377  0      0      0    
   134   4:diedao   4:diedao          0      0      0     *1      0    
   135   4:diedao   4:diedao          0      0      0     *1      0    
     1      1:zou      1:zou         *0.925  0.024  0      0      0.052
     2      1:zou      1:zou         *0.925  0.024  0      0      0.052
     3      1:zou      1:zou         *0.925  0.024  0      0      0.052
     4      1:zou      2:pao      +   0     *1      0      0      0    
     5      1:zou      1:zou         *0.923  0.077  0      0      0    
     6      1:zou      1:zou         *0.925  0.024  0      0      0.052
     7      1:zou      1:zou         *1      0      0      0      0    
     8      1:zou      1:zou         *1      0      0      0      0    
     9      1:zou      1:zou         *0.925  0.024  0      0      0.052
    10      1:zou      1:zou         *1      0      0      0      0    
    11      1:zou    5:zhuan      +   0      0      0      0     *1    
    12      1:zou      1:zou         *0.925  0.024  0      0      0.052
    13      1:zou      2:pao      +   0     *1      0      0      0    
    14      1:zou      1:zou         *0.939  0.03   0      0      0.03 
    15      1:zou      1:zou         *0.961  0      0      0      0.039
    16      1:zou    5:zhuan      +   0.067  0.067  0      0     *0.867
    17      1:zou      1:zou         *0.667  0.333  0      0      0    
    18      1:zou      1:zou         *0.925  0.024  0      0      0.052
    19      1:zou      1:zou         *0.925  0.024  0      0      0.052
    20      1:zou      1:zou         *0.923  0.077  0      0      0    
    21      1:zou      1:zou         *0.667  0.333  0      0      0    
    22      1:zou      1:zou         *0.925  0.024  0      0      0.052
    23      1:zou      1:zou         *0.925  0.024  0      0      0.052
    24      1:zou      1:zou         *0.925  0.024  0      0      0.052
    25      1:zou      1:zou         *0.85   0      0      0      0.15 
    26      1:zou      2:pao      +   0.25  *0.75   0      0      0    
    27      1:zou      1:zou         *0.925  0.024  0      0      0.052
    28      1:zou      1:zou         *0.925  0.024  0      0      0.052
    29      1:zou      1:zou         *0.939  0.03   0      0      0.03 
    30      1:zou    5:zhuan      +   0.219  0.031  0      0     *0.75 
    31      1:zou      1:zou         *1      0      0      0      0    
    32      1:zou      1:zou         *0.925  0.024  0      0      0.052
    33      1:zou      2:pao      +   0     *1      0      0      0    
    34      1:zou      1:zou         *0.961  0      0      0      0.039
    35      1:zou      1:zou         *0.939  0.03   0      0      0.03 
    36      1:zou      1:zou         *0.925  0.024  0      0      0.052
    37      1:zou      1:zou         *0.939  0.03   0      0      0.03 
    38      1:zou      1:zou         *0.961  0      0      0      0.039
    39      1:zou      1:zou         *0.925  0.024  0      0      0.052
    40      1:zou      1:zou         *0.961  0      0      0      0.039
    41      1:zou      1:zou         *0.925  0.024  0      0      0.052
    42      1:zou      1:zou         *0.925  0.024  0      0      0.052
    43      1:zou      1:zou         *0.939  0.03   0      0      0.03 
    44      1:zou      1:zou         *0.925  0.024  0      0      0.052
    45      1:zou    5:zhuan      +   0      0      0      0     *1    
    46      1:zou      1:zou         *0.925  0.024  0      0      0.052
    47      1:zou      1:zou         *0.925  0.024  0      0      0.052
    48      1:zou      1:zou         *0.923  0.077  0      0      0    
    49      1:zou      1:zou         *0.925  0.024  0      0      0.052
    50      1:zou      1:zou         *0.923  0.077  0      0      0    
    51      1:zou      2:pao      +   0.182 *0.818  0      0      0    
    52      2:pao      2:pao          0     *1      0      0      0    
    53      2:pao      2:pao          0.031 *0.969  0      0      0    
    54      2:pao      2:pao          0     *0.952  0      0      0.048
    55      2:pao      2:pao          0     *1      0      0      0    
    56      2:pao      1:zou      +  *0.944  0      0      0.056  0    
    57      2:pao      2:pao          0     *1      0      0      0    
    58      2:pao      2:pao          0     *1      0      0      0    
    59      2:pao      2:pao          0     *0.867  0      0      0.133
    60      2:pao      2:pao          0     *1      0      0      0    
    61      2:pao      2:pao          0.031 *0.969  0      0      0    
    62      2:pao      1:zou      +  *0.925  0.024  0      0      0.052
    63      2:pao      2:pao          0     *0.875  0      0      0.125
    64      2:pao    5:zhuan      +   0      0.023  0      0     *0.977
    65      2:pao      1:zou      +  *0.85   0      0      0      0.15 
    66      2:pao      2:pao          0     *1      0      0      0    
    67      2:pao      2:pao          0     *1      0      0      0    
    68      2:pao      2:pao          0.031 *0.969  0      0      0    
    69      2:pao      2:pao          0.182 *0.818  0      0      0    
    70      2:pao      2:pao          0     *1      0      0      0    
    71      2:pao   4:diedao      +   0      0      0.04  *0.96   0    
    72      2:pao      2:pao          0.031 *0.969  0      0      0    
    73      2:pao      2:pao          0     *1      0      0      0    
    74      2:pao      2:pao          0     *0.867  0      0      0.133
    75      2:pao      2:pao          0     *1      0      0      0    
    76      2:pao      1:zou      +  *0.939  0.03   0      0      0.03 
    77      2:pao      2:pao          0     *1      0      0      0    
    78      2:pao    5:zhuan      +   0      0      0      0     *1    
    79      2:pao      2:pao          0     *1      0      0      0    
    80      2:pao      2:pao          0     *1      0      0      0    
    81      2:pao      2:pao          0     *0.917  0      0      0.083
    82      2:pao      2:pao          0     *1      0      0      0    
    83    5:zhuan    5:zhuan          0      0.023  0      0     *0.977
    84    5:zhuan      2:pao      +   0     *0.952  0      0      0.048
    85    5:zhuan    5:zhuan          0      0      0      0     *1    
    86    5:zhuan    5:zhuan          0.219  0.031  0      0     *0.75 
    87    5:zhuan      1:zou      +  *1      0      0      0      0    
    88    5:zhuan    5:zhuan          0      0      0      0     *1    
    89    5:zhuan    5:zhuan          0      0.023  0      0     *0.977
    90    5:zhuan    5:zhuan          0      0.023  0      0     *0.977
    91    5:zhuan      2:pao      +   0     *0.917  0      0      0.083
    92    5:zhuan      1:zou      +  *0.923  0.077  0      0      0    
    93    5:zhuan    5:zhuan          0      0      0      0     *1    
    94    5:zhuan      2:pao      +   0     *1      0      0      0    
    95    5:zhuan    5:zhuan          0.067  0.067  0      0     *0.867
    96    5:zhuan    5:zhuan          0      0.023  0      0     *0.977
    97    5:zhuan    5:zhuan          0      0.143  0      0     *0.857
    98    5:zhuan    5:zhuan          0      0.023  0      0     *0.977
    99    5:zhuan      1:zou      +  *0.939  0.03   0      0      0.03 
   100    5:zhuan    5:zhuan          0.067  0.067  0      0     *0.867
   101    5:zhuan    5:zhuan          0      0.023  0      0     *0.977
   102    5:zhuan    5:zhuan          0      0.143  0      0     *0.857
   103    5:zhuan      2:pao      +   0     *1      0      0      0    
   104    5:zhuan    5:zhuan          0      0.023  0      0     *0.977
   105    5:zhuan      2:pao      +   0     *0.667  0      0      0.333
   106    5:zhuan      2:pao      +   0     *0.875  0      0      0.125
   107    5:zhuan    5:zhuan          0      0.143  0      0     *0.857
   108    5:zhuan    5:zhuan          0      0.023  0      0     *0.977
   109    5:zhuan    5:zhuan          0      0.023  0      0     *0.977
   110    5:zhuan    5:zhuan          0      0.023  0      0     *0.977
   111    5:zhuan      2:pao      +   0.2   *0.8    0      0      0    
   112    5:zhuan    5:zhuan          0      0.023  0      0     *0.977
   113     3:jing     3:jing          0      0     *1      0      0    
   114     3:jing     3:jing          0      0     *1      0      0    
   115     3:jing     3:jing          0      0     *1      0      0    
   116     3:jing     3:jing          0      0     *1      0      0    
   117     3:jing     3:jing          0      0     *1      0      0    
   118     3:jing     3:jing          0      0     *1      0      0    
   119     3:jing     3:jing          0      0     *1      0      0    
   120     3:jing     3:jing          0      0     *1      0      0    
   121     3:jing     3:jing          0      0     *1      0      0    
   122     3:jing     3:jing          0      0     *1      0      0    
   123     3:jing     3:jing          0      0     *1      0      0    
   124     3:jing     3:jing          0      0     *1      0      0    
   125     3:jing     3:jing          0      0     *1      0      0    
   126     3:jing     3:jing          0      0     *1      0      0    
   127     3:jing     3:jing          0      0     *1      0      0    
   128     3:jing     3:jing          0      0     *1      0      0    
   129     3:jing     3:jing          0      0     *1      0      0    
   130     3:jing     3:jing          0      0     *1      0      0    
   131     3:jing     3:jing          0      0     *1      0      0    
   132     3:jing     3:jing          0      0     *1      0      0    
   133   4:diedao   4:diedao          0      0      0.04  *0.96   0    
   134   4:diedao   4:diedao          0      0      0.04  *0.96   0    
   135   4:diedao   4:diedao          0      0      0     *0.667  0.333
     1      1:zou      2:pao      +   0     *0.833  0      0.167  0    
     2      1:zou      1:zou         *0.894  0.06   0      0      0.045
     3      1:zou      1:zou         *0.894  0.06   0      0      0.045
     4      1:zou    5:zhuan      +   0.333  0      0      0     *0.667
     5      1:zou      1:zou         *0.894  0.06   0      0      0.045
     6      1:zou      1:zou         *0.894  0.06   0      0      0.045
     7      1:zou      1:zou         *0.894  0.06   0      0      0.045
     8      1:zou      1:zou         *0.894  0.06   0      0      0.045
     9      1:zou      1:zou         *0.894  0.06   0      0      0.045
    10      1:zou      1:zou         *0.894  0.06   0      0      0.045
    11      1:zou      1:zou         *0.894  0.06   0      0      0.045
    12      1:zou      1:zou         *1      0      0      0      0    
    13      1:zou      1:zou         *0.894  0.06   0      0      0.045
    14      1:zou      1:zou         *0.894  0.06   0      0      0.045
    15      1:zou    5:zhuan      +   0.069  0      0      0     *0.931
    16      1:zou    5:zhuan      +   0.069  0      0      0     *0.931
    17      1:zou      1:zou         *0.894  0.06   0      0      0.045
    18      1:zou      1:zou         *0.894  0.06   0      0      0.045
    19      1:zou      1:zou         *0.857  0.143  0      0      0    
    20      1:zou      1:zou         *0.963  0.037  0      0      0    
    21      1:zou      1:zou         *0.894  0.06   0      0      0.045
    22      1:zou      1:zou         *0.952  0.048  0      0      0    
    23      1:zou    5:zhuan      +   0      0      0      0     *1    
    24      1:zou      1:zou         *0.894  0.06   0      0      0.045
    25      1:zou      1:zou         *0.859  0.141  0      0      0    
    26      1:zou      1:zou         *0.894  0.06   0      0      0.045
    27      1:zou      1:zou         *0.859  0.141  0      0      0    
    28      1:zou      1:zou         *0.894  0.06   0      0      0.045
    29      1:zou      1:zou         *0.894  0.06   0      0      0.045
    30      1:zou      1:zou         *0.859  0.141  0      0      0    
    31      1:zou      1:zou         *0.952  0.048  0      0      0    
    32      1:zou   4:diedao      +   0      0.2    0     *0.8    0    
    33      1:zou      1:zou         *0.894  0.06   0      0      0.045
    34      1:zou      1:zou         *0.894  0.06   0      0      0.045
    35      1:zou      1:zou         *0.667  0      0      0      0.333
    36      1:zou      1:zou         *0.894  0.06   0      0      0.045
    37      1:zou      1:zou         *0.931  0.069  0      0      0    
    38      1:zou      1:zou         *0.894  0.06   0      0      0.045
    39      1:zou      1:zou         *1      0      0      0      0    
    40      1:zou      1:zou         *0.894  0.06   0      0      0.045
    41      1:zou      1:zou         *0.894  0.06   0      0      0.045
    42      1:zou      1:zou         *0.894  0.06   0      0      0.045
    43      1:zou      2:pao      +   0.043 *0.913  0      0      0.043
    44      1:zou      1:zou         *0.894  0.06   0      0      0.045
    45      1:zou      1:zou         *0.894  0.06   0      0      0.045
    46      1:zou      1:zou         *0.859  0.141  0      0      0    
    47      1:zou      1:zou         *0.931  0.069  0      0      0    
    48      1:zou      1:zou         *0.894  0.06   0      0      0.045
    49      1:zou      1:zou         *0.894  0.06   0      0      0.045
    50      1:zou    5:zhuan      +   0.022  0.044  0      0     *0.933
    51      1:zou      1:zou         *0.894  0.06   0      0      0.045
    52      2:pao      2:pao          0.043 *0.913  0      0      0.043
    53      2:pao      1:zou      +  *1      0      0      0      0    
    54      2:pao      1:zou      +  *0.894  0.06   0      0      0.045
    55      2:pao      2:pao          0.016 *0.984  0      0      0    
    56      2:pao      2:pao          0.043 *0.913  0      0      0.043
    57      2:pao      2:pao          0     *0.833  0      0      0.167
    58      2:pao      1:zou      +  *0.894  0.06   0      0      0.045
    59      2:pao      2:pao          0.333 *0.667  0      0      0    
    60      2:pao      1:zou      +  *0.963  0.037  0      0      0    
    61      2:pao      2:pao          0.016 *0.984  0      0      0    
    62      2:pao      2:pao          0     *1      0      0      0    
    63      2:pao    5:zhuan      +   0      0.111  0      0     *0.889
    64      2:pao      2:pao          0.016 *0.984  0      0      0    
    65      2:pao      2:pao          0     *0.97   0      0.03   0    
    66      2:pao      1:zou      +  *0.8    0.2    0      0      0    
    67      2:pao      2:pao          0     *0.833  0      0      0.167
    68      2:pao      2:pao          0.016 *0.984  0      0      0    
    69      2:pao      2:pao          0.333 *0.667  0      0      0    
    70      2:pao      2:pao          0     *0.727  0      0      0.273
    71      2:pao      2:pao          0.043 *0.913  0      0      0.043
    72      2:pao      2:pao          0     *0.97   0      0.03   0    
    73      2:pao      2:pao          0     *1      0      0      0    
    74      2:pao      2:pao          0.016 *0.984  0      0      0    
    75      2:pao      2:pao          0     *0.97   0      0.03   0    
    76      2:pao      2:pao          0.016 *0.984  0      0      0    
    77      2:pao    5:zhuan      +   0      0.07   0      0     *0.93 
    78      2:pao    5:zhuan      +   0      0.07   0      0     *0.93 
    79      2:pao      2:pao          0     *0.97   0      0.03   0    
    80      2:pao      2:pao          0     *0.667  0      0      0.333
    81      2:pao      2:pao          0     *1      0      0      0    
    82      2:pao      2:pao          0     *0.727  0      0      0.273
    83    5:zhuan      2:pao      +   0.043 *0.913  0      0      0.043
    84    5:zhuan      2:pao      +   0     *0.833  0      0      0.167
    85    5:zhuan    5:zhuan          0.022  0.044  0      0     *0.933
    86    5:zhuan      2:pao      +   0     *0.8    0      0      0.2  
    87    5:zhuan      1:zou      +  *0.894  0.06   0      0      0.045
    88    5:zhuan    5:zhuan          0      0.07   0      0     *0.93 
    89    5:zhuan      1:zou      +  *0.952  0.048  0      0      0    
    90    5:zhuan    5:zhuan          0      0.07   0      0     *0.93 
    91    5:zhuan    5:zhuan          0      0.07   0      0     *0.93 
    92    5:zhuan      1:zou      +  *0.894  0.06   0      0      0.045
    93    5:zhuan    5:zhuan          0      0.07   0      0     *0.93 
    94    5:zhuan    5:zhuan          0      0      0      0     *1    
    95    5:zhuan    5:zhuan          0      0.188  0      0     *0.813
    96    5:zhuan    5:zhuan          0      0.07   0      0     *0.93 
    97    5:zhuan    5:zhuan          0      0.07   0      0     *0.93 
    98    5:zhuan    5:zhuan          0      0.07   0      0     *0.93 
    99    5:zhuan    5:zhuan          0      0      0      0     *1    
   100    5:zhuan    5:zhuan          0      0.07   0      0     *0.93 
   101    5:zhuan    5:zhuan          0      0      0      0     *1    
   102    5:zhuan    5:zhuan          0      0.07   0      0     *0.93 
   103    5:zhuan    5:zhuan          0.022  0.044  0      0     *0.933
   104    5:zhuan      1:zou      +  *0.894  0.06   0      0      0.045
   105    5:zhuan      2:pao      +   0     *0.833  0      0      0.167
   106    5:zhuan    5:zhuan          0      0.07   0      0     *0.93 
   107    5:zhuan    5:zhuan          0      0.07   0      0     *0.93 
   108    5:zhuan      2:pao      +   0     *0.833  0      0      0.167
   109    5:zhuan    5:zhuan          0.069  0      0      0     *0.931
   110    5:zhuan    5:zhuan          0.022  0.044  0      0     *0.933
   111    5:zhuan    5:zhuan          0      0.188  0      0     *0.813
   112    5:zhuan    5:zhuan          0      0.188  0      0     *0.813
   113     3:jing     3:jing          0      0     *1      0      0    
   114     3:jing     3:jing          0      0     *1      0      0    
   115     3:jing     3:jing          0      0     *1      0      0    
   116     3:jing     3:jing          0      0     *1      0      0    
   117     3:jing     3:jing          0      0     *1      0      0    
   118     3:jing     3:jing          0      0     *1      0      0    
   119     3:jing     3:jing          0      0     *1      0      0    
   120     3:jing     3:jing          0      0     *1      0      0    
   121     3:jing     3:jing          0      0     *1      0      0    
   122     3:jing     3:jing          0      0     *1      0      0    
   123     3:jing     3:jing          0      0     *1      0      0    
   124     3:jing     3:jing          0      0     *1      0      0    
   125     3:jing     3:jing          0      0     *1      0      0    
   126     3:jing     3:jing          0      0     *1      0      0    
   127     3:jing     3:jing          0      0     *1      0      0    
   128     3:jing     3:jing          0      0     *1      0      0    
   129     3:jing     3:jing          0      0     *1      0      0    
   130     3:jing     3:jing          0      0     *1      0      0    
   131     3:jing     3:jing          0      0     *1      0      0    
   132   4:diedao   4:diedao          0      0      0     *1      0    
   133   4:diedao   4:diedao          0      0      0     *1      0    
   134   4:diedao   4:diedao          0      0      0     *1      0    
   135   4:diedao   4:diedao          0      0      0     *1      0    
     1      1:zou      1:zou         *0.895  0.031  0      0.006  0.068
     2      1:zou      1:zou         *0.903  0.085  0      0      0.011
     3      1:zou      1:zou         *0.923  0.077  0      0      0    
     4      1:zou      1:zou         *0.895  0.031  0      0.006  0.068
     5      1:zou      2:pao      +   0.167 *0.833  0      0      0    
     6      1:zou      1:zou         *0.895  0.031  0      0.006  0.068
     7      1:zou      1:zou         *0.895  0.031  0      0.006  0.068
     8      1:zou      1:zou         *0.903  0.085  0      0      0.011
     9      1:zou      1:zou         *0.895  0.031  0      0.006  0.068
    10      1:zou      1:zou         *0.903  0.085  0      0      0.011
    11      1:zou      1:zou         *0.769  0      0      0      0.231
    12      1:zou      1:zou         *0.895  0.031  0      0.006  0.068
    13      1:zou      1:zou         *0.903  0.085  0      0      0.011
    14      1:zou      1:zou         *0.903  0.085  0      0      0.011
    15      1:zou      1:zou         *0.903  0.085  0      0      0.011
    16      1:zou      1:zou         *0.8    0      0      0      0.2  
    17      1:zou      1:zou         *1      0      0      0      0    
    18      1:zou      1:zou         *0.895  0.031  0      0.006  0.068
    19      1:zou      1:zou         *0.895  0.031  0      0.006  0.068
    20      1:zou      1:zou         *1      0      0      0      0    
    21      1:zou      1:zou         *0.769  0      0      0      0.231
    22      1:zou      1:zou         *0.895  0.031  0      0.006  0.068
    23      1:zou      1:zou         *0.903  0.085  0      0      0.011
    24      1:zou      1:zou         *0.903  0.085  0      0      0.011
    25      1:zou      2:pao      +   0.059 *0.941  0      0      0    
    26      1:zou      1:zou         *0.903  0.085  0      0      0.011
    27      1:zou      1:zou         *1      0      0      0      0    
    28      1:zou      1:zou         *0.903  0.085  0      0      0.011
    29      1:zou      1:zou         *0.895  0.031  0      0.006  0.068
    30      1:zou      1:zou         *0.769  0      0      0      0.231
    31      1:zou      1:zou         *0.903  0.085  0      0      0.011
    32      1:zou      1:zou         *0.923  0.077  0      0      0    
    33      1:zou      2:pao      +   0     *0.5    0      0.5    0    
    34      1:zou      1:zou         *0.895  0.031  0      0.006  0.068
    35      1:zou      1:zou         *0.8    0      0      0      0.2  
    36      1:zou      1:zou         *0.955  0.045  0      0      0    
    37      1:zou      1:zou         *0.769  0      0      0      0.231
    38      1:zou      1:zou         *0.923  0.077  0      0      0    
    39      1:zou      1:zou         *0.903  0.085  0      0      0.011
    40      1:zou      1:zou         *0.895  0.031  0      0.006  0.068
    41      1:zou      1:zou         *0.903  0.085  0      0      0.011
    42      1:zou      1:zou         *0.895  0.031  0      0.006  0.068
    43      1:zou      1:zou         *0.895  0.031  0      0.006  0.068
    44      1:zou      1:zou         *0.903  0.085  0      0      0.011
    45      1:zou      1:zou         *0.903  0.085  0      0      0.011
    46      1:zou      1:zou         *0.895  0.031  0      0.006  0.068
    47      1:zou      1:zou         *0.903  0.085  0      0      0.011
    48      1:zou      1:zou         *0.903  0.085  0      0      0.011
    49      1:zou      1:zou         *0.903  0.085  0      0      0.011
    50      1:zou      1:zou         *0.923  0.077  0      0      0    
    51      1:zou      1:zou         *0.895  0.031  0      0.006  0.068
    52      2:pao      1:zou      +  *0.923  0.077  0      0      0    
    53      2:pao      2:pao          0     *1      0      0      0    
    54      2:pao      1:zou      +  *0.923  0.077  0      0      0    
    55      2:pao      1:zou      +  *0.895  0.031  0      0.006  0.068
    56      2:pao      2:pao          0.03  *0.97   0      0      0    
    57      2:pao    5:zhuan      +   0      0.245  0      0     *0.755
    58      2:pao      1:zou      +  *0.75   0.25   0      0      0    
    59      2:pao      2:pao          0     *1      0      0      0    
    60      2:pao      1:zou      +  *0.895  0.031  0      0.006  0.068
    61      2:pao      2:pao          0     *0.97   0      0.03   0    
    62      2:pao      2:pao          0     *0.97   0      0.03   0    
    63      2:pao      2:pao          0     *1      0      0      0    
    64      2:pao      2:pao          0     *0.875  0      0      0.125
    65      2:pao      2:pao          0     *0.97   0      0.03   0    
    66      2:pao      2:pao          0.03  *0.97   0      0      0    
    67      2:pao      1:zou      +  *0.923  0.077  0      0      0    
    68      2:pao      2:pao          0     *1      0      0      0    
    69      2:pao      2:pao          0.167 *0.833  0      0      0    
    70      2:pao      2:pao          0.167 *0.833  0      0      0    
    71      2:pao      2:pao          0     *1      0      0      0    
    72      2:pao    5:zhuan      +   0.026  0.026  0      0     *0.949
    73      2:pao    5:zhuan      +   0.026  0.026  0      0     *0.949
    74      2:pao      2:pao          0.03  *0.97   0      0      0    
    75      2:pao      2:pao          0     *1      0      0      0    
    76      2:pao      1:zou      +  *0.667  0      0      0.333  0    
    77      2:pao    5:zhuan      +   0      0.025  0      0     *0.975
    78      2:pao      2:pao          0     *1      0      0      0    
    79      2:pao      2:pao          0     *1      0      0      0    
    80      2:pao      1:zou      +  *0.903  0.085  0      0      0.011
    81      2:pao    5:zhuan      +   0      0.245  0      0     *0.755
    82      2:pao      2:pao          0     *1      0      0      0    
    83    5:zhuan    5:zhuan          0.026  0.026  0      0     *0.949
    84    5:zhuan    5:zhuan          0.026  0.026  0      0     *0.949
    85    5:zhuan    5:zhuan          0      0.245  0      0     *0.755
    86    5:zhuan    5:zhuan          0      0      0      0     *1    
    87    5:zhuan    5:zhuan          0      0.025  0      0     *0.975
    88    5:zhuan    5:zhuan          0      0      0      0     *1    
    89    5:zhuan    5:zhuan          0.026  0.026  0      0     *0.949
    90    5:zhuan    5:zhuan          0      0.025  0      0     *0.975
    91    5:zhuan      2:pao      +   0     *0.97   0      0.03   0    
    92    5:zhuan    5:zhuan          0.026  0.026  0      0     *0.949
    93    5:zhuan     3:jing      +   0      0     *1      0      0    
    94    5:zhuan    5:zhuan          0      0.245  0      0     *0.755
    95    5:zhuan    5:zhuan          0      0.245  0      0     *0.755
    96    5:zhuan    5:zhuan          0.026  0.026  0      0     *0.949
    97    5:zhuan    5:zhuan          0      0.025  0      0     *0.975
    98    5:zhuan    5:zhuan          0      0.025  0      0     *0.975
    99    5:zhuan    5:zhuan          0      0.245  0      0     *0.755
   100    5:zhuan    5:zhuan          0      0.245  0      0     *0.755
   101    5:zhuan    5:zhuan          0.026  0.026  0      0     *0.949
   102    5:zhuan      2:pao      +   0     *0.833  0      0      0.167
   103    5:zhuan    5:zhuan          0      0.245  0      0     *0.755
   104    5:zhuan    5:zhuan          0      0.025  0      0     *0.975
   105    5:zhuan    5:zhuan          0      0      0      0     *1    
   106    5:zhuan      2:pao      +   0     *0.5    0      0      0.5  
   107    5:zhuan      2:pao      +   0     *1      0      0      0    
   108    5:zhuan      1:zou      +  *0.8    0      0      0      0.2  
   109    5:zhuan    5:zhuan          0      0      0      0     *1    
   110    5:zhuan    5:zhuan          0      0.025  0      0     *0.975
   111    5:zhuan    5:zhuan          0      0      0      0     *1    
   112    5:zhuan    5:zhuan          0      0.025  0      0     *0.975
   113     3:jing     3:jing          0      0     *1      0      0    
   114     3:jing     3:jing          0      0     *1      0      0    
   115     3:jing     3:jing          0      0     *1      0      0    
   116     3:jing     3:jing          0      0     *1      0      0    
   117     3:jing     3:jing          0      0     *1      0      0    
   118     3:jing     3:jing          0      0     *1      0      0    
   119     3:jing     3:jing          0      0     *1      0      0    
   120     3:jing     3:jing          0      0     *1      0      0    
   121     3:jing     3:jing          0      0     *1      0      0    
   122     3:jing     3:jing          0      0     *1      0      0    
   123     3:jing     3:jing          0      0     *1      0      0    
   124     3:jing     3:jing          0      0     *1      0      0    
   125     3:jing     3:jing          0      0     *1      0      0    
   126     3:jing     3:jing          0      0     *1      0      0    
   127     3:jing     3:jing          0      0     *1      0      0    
   128     3:jing     3:jing          0      0     *1      0      0    
   129     3:jing     3:jing          0      0     *1      0      0    
   130     3:jing     3:jing          0      0     *1      0      0    
   131     3:jing     3:jing          0      0     *1      0      0    
   132   4:diedao   4:diedao          0      0      0     *1      0    
   133   4:diedao   4:diedao          0      0      0     *1      0    
   134   4:diedao   4:diedao          0      0      0     *1      0    
   135   4:diedao   4:diedao          0      0      0     *1      0    
     1      1:zou      1:zou         *0.814  0.119  0      0      0.068
     2      1:zou      1:zou         *0.913  0.07   0      0      0.017
     3      1:zou      1:zou         *0.913  0.07   0      0      0.017
     4      1:zou      1:zou         *0.913  0.07   0      0      0.017
     5      1:zou    5:zhuan      +   0      0.125  0      0     *0.875
     6      1:zou      1:zou         *0.913  0.07   0      0      0.017
     7      1:zou    5:zhuan      +   0.25   0      0      0     *0.75 
     8      1:zou      1:zou         *0.814  0.119  0      0      0.068
     9      1:zou      1:zou         *0.667  0.333  0      0      0    
    10      1:zou      1:zou         *0.913  0.07   0      0      0.017
    11      1:zou      1:zou         *0.844  0.063  0      0      0.094
    12      1:zou      1:zou         *0.913  0.07   0      0      0.017
    13      1:zou      1:zou         *0.913  0.07   0      0      0.017
    14      1:zou      1:zou         *0.952  0.048  0      0      0    
    15      1:zou      2:pao      +   0.1   *0.9    0      0      0    
    16      1:zou      1:zou         *1      0      0      0      0    
    17      1:zou      1:zou         *0.814  0.119  0      0      0.068
    18      1:zou      1:zou         *0.814  0.119  0      0      0.068
    19      1:zou      1:zou         *0.913  0.07   0      0      0.017
    20      1:zou      2:pao      +   0     *1      0      0      0    
    21      1:zou      2:pao      +   0     *1      0      0      0    
    22      1:zou      1:zou         *0.814  0.119  0      0      0.068
    23      1:zou      1:zou         *1      0      0      0      0    
    24      1:zou      1:zou         *0.913  0.07   0      0      0.017
    25      1:zou      1:zou         *0.913  0.07   0      0      0.017
    26      1:zou      1:zou         *0.952  0.048  0      0      0    
    27      1:zou      1:zou         *0.913  0.07   0      0      0.017
    28      1:zou      1:zou         *0.913  0.07   0      0      0.017
    29      1:zou      1:zou         *0.913  0.07   0      0      0.017
    30      1:zou      1:zou         *0.913  0.07   0      0      0.017
    31      1:zou      1:zou         *0.844  0.063  0      0      0.094
    32      1:zou      1:zou         *0.913  0.07   0      0      0.017
    33      1:zou      1:zou         *0.913  0.07   0      0      0.017
    34      1:zou      1:zou         *1      0      0      0      0    
    35      1:zou      1:zou         *0.913  0.07   0      0      0.017
    36      1:zou      1:zou         *0.913  0.07   0      0      0.017
    37      1:zou      1:zou         *0.75   0      0      0.25   0    
    38      1:zou      1:zou         *0.913  0.07   0      0      0.017
    39      1:zou      1:zou         *0.913  0.07   0      0      0.017
    40      1:zou      2:pao      +   0.111 *0.889  0      0      0    
    41      1:zou     3:jing      +   0      0     *0.5    0.5    0    
    42      1:zou      1:zou         *0.844  0.063  0      0      0.094
    43      1:zou      1:zou         *0.913  0.07   0      0      0.017
    44      1:zou      1:zou         *0.913  0.07   0      0      0.017
    45      1:zou      1:zou         *0.913  0.07   0      0      0.017
    46      1:zou      2:pao      +   0     *1      0      0      0    
    47      1:zou      1:zou         *0.913  0.07   0      0      0.017
    48      1:zou      1:zou         *0.913  0.07   0      0      0.017
    49      1:zou      1:zou         *1      0      0      0      0    
    50      1:zou      1:zou         *0.5    0      0      0      0.5  
    51      1:zou      1:zou         *0.814  0.119  0      0      0.068
    52      2:pao      2:pao          0     *0.968  0      0.032  0    
    53      2:pao    5:zhuan      +   0      0.125  0      0     *0.875
    54      2:pao      2:pao          0     *1      0      0      0    
    55      2:pao      2:pao          0.032 *0.968  0      0      0    
    56      2:pao    5:zhuan      +   0      0.023  0      0     *0.977
    57      2:pao      1:zou      +  *0.636  0      0      0      0.364
    58      2:pao      2:pao          0     *0.968  0      0.032  0    
    59      2:pao      1:zou      +  *0.952  0.048  0      0      0    
    60      2:pao      1:zou      +  *0.913  0.07   0      0      0.017
    61      2:pao      2:pao          0     *0.968  0      0.032  0    
    62      2:pao      1:zou      +  *0.913  0.07   0      0      0.017
    63      2:pao    5:zhuan      +   0      0.051  0      0     *0.949
    64      2:pao      2:pao          0     *1      0      0      0    
    65      2:pao      2:pao          0     *0.968  0      0.032  0    
    66      2:pao      2:pao          0.032 *0.968  0      0      0    
    67      2:pao    5:zhuan      +   0      0      0      0     *1    
    68      2:pao      1:zou      +  *1      0      0      0      0    
    69      2:pao      2:pao          0.032 *0.968  0      0      0    
    70      2:pao      2:pao          0     *1      0      0      0    
    71      2:pao      2:pao          0.032 *0.968  0      0      0    
    72      2:pao      2:pao          0     *1      0      0      0    
    73      2:pao      2:pao          0     *1      0      0      0    
    74      2:pao      2:pao          0     *1      0      0      0    
    75      2:pao      2:pao          0     *1      0      0      0    
    76      2:pao    5:zhuan      +   0.15   0.4    0      0     *0.45 
    77      2:pao      1:zou      +  *0.913  0.07   0      0      0.017
    78      2:pao      2:pao          0.032 *0.968  0      0      0    
    79      2:pao      2:pao          0     *1      0      0      0    
    80      2:pao    5:zhuan      +   0      0      0      0     *1    
    81      2:pao      2:pao          0     *0.968  0      0.032  0    
    82      2:pao      2:pao          0     *0.875  0      0      0.125
    83    5:zhuan    5:zhuan          0      0.205  0      0     *0.795
    84    5:zhuan    5:zhuan          0      0.205  0      0     *0.795
    85    5:zhuan    5:zhuan          0      0.023  0      0     *0.977
    86    5:zhuan      1:zou      +  *1      0      0      0      0    
    87    5:zhuan    5:zhuan          0      0.023  0      0     *0.977
    88    5:zhuan      1:zou      +  *0.844  0.063  0      0      0.094
    89    5:zhuan    5:zhuan          0      0      0      0     *1    
    90    5:zhuan      2:pao      +   0     *0.667  0      0      0.333
    91    5:zhuan    5:zhuan          0      0.051  0      0     *0.949
    92    5:zhuan    5:zhuan          0      0.051  0      0     *0.949
    93    5:zhuan      2:pao      +   0     *1      0      0      0    
    94    5:zhuan    5:zhuan          0      0.051  0      0     *0.949
    95    5:zhuan    5:zhuan          0      0.023  0      0     *0.977
    96    5:zhuan      1:zou      +  *0.913  0.07   0      0      0.017
    97    5:zhuan    5:zhuan          0      0.023  0      0     *0.977
    98    5:zhuan    5:zhuan          0      0.023  0      0     *0.977
    99    5:zhuan    5:zhuan          0      0.051  0      0     *0.949
   100    5:zhuan    5:zhuan          0      0.023  0      0     *0.977
   101    5:zhuan      1:zou      +  *1      0      0      0      0    
   102    5:zhuan      2:pao      +   0.1   *0.9    0      0      0    
   103    5:zhuan      1:zou      +  *0.913  0.07   0      0      0.017
   104    5:zhuan    5:zhuan          0      0.023  0      0     *0.977
   105    5:zhuan      1:zou      +  *0.913  0.07   0      0      0.017
   106    5:zhuan      1:zou      +  *1      0      0      0      0    
   107    5:zhuan    5:zhuan          0      0      0      0     *1    
   108    5:zhuan    5:zhuan          0      0      0      0     *1    
   109    5:zhuan    5:zhuan          0      0.023  0      0     *0.977
   110    5:zhuan      1:zou      +  *0.814  0.119  0      0      0.068
   111    5:zhuan    5:zhuan          0      0.023  0      0     *0.977
   112    5:zhuan    5:zhuan          0      0.023  0      0     *0.977
   113     3:jing     3:jing          0      0     *1      0      0    
   114     3:jing     3:jing          0      0     *1      0      0    
   115     3:jing     3:jing          0      0     *1      0      0    
   116     3:jing     3:jing          0      0     *1      0      0    
   117     3:jing     3:jing          0      0     *1      0      0    
   118     3:jing     3:jing          0      0     *1      0      0    
   119     3:jing     3:jing          0      0     *1      0      0    
   120     3:jing     3:jing          0      0     *1      0      0    
   121     3:jing     3:jing          0      0     *1      0      0    
   122     3:jing     3:jing          0      0     *1      0      0    
   123     3:jing   4:diedao      +   0      0      0.043 *0.957  0    
   124     3:jing     3:jing          0      0     *1      0      0    
   125     3:jing     3:jing          0      0     *1      0      0    
   126     3:jing     3:jing          0      0     *1      0      0    
   127     3:jing     3:jing          0      0     *1      0      0    
   128     3:jing     3:jing          0      0     *1      0      0    
   129     3:jing     3:jing          0      0     *1      0      0    
   130     3:jing     3:jing          0      0     *1      0      0    
   131     3:jing     3:jing          0      0     *1      0      0    
   132   4:diedao   4:diedao          0      0      0.043 *0.957  0    
   133   4:diedao   4:diedao          0      0      0.043 *0.957  0    
   134   4:diedao   4:diedao          0      0      0.043 *0.957  0    
     1      1:zou      1:zou         *0.884  0.047  0      0      0.07 
     2      1:zou      1:zou         *0.857  0.061  0      0      0.082
     3      1:zou      1:zou         *0.977  0.023  0      0      0    
     4      1:zou      1:zou         *0.648  0.111  0      0      0.241
     5      1:zou      1:zou         *0.921  0.039  0      0      0.039
     6      1:zou      1:zou         *1      0      0      0      0    
     7      1:zou      1:zou         *0.977  0.023  0      0      0    
     8      1:zou      1:zou         *0.977  0.023  0      0      0    
     9      1:zou      1:zou         *0.921  0.039  0      0      0.039
    10      1:zou      1:zou         *0.921  0.039  0      0      0.039
    11      1:zou      1:zou         *0.921  0.039  0      0      0.039
    12      1:zou      1:zou         *0.648  0.111  0      0      0.241
    13      1:zou      1:zou         *0.921  0.039  0      0      0.039
    14      1:zou      1:zou         *0.977  0.023  0      0      0    
    15      1:zou      1:zou         *0.957  0.043  0      0      0    
    16      1:zou      1:zou         *0.921  0.039  0      0      0.039
    17      1:zou    5:zhuan      +   0      0.042  0      0     *0.958
    18      1:zou      1:zou         *0.884  0.047  0      0      0.07 
    19      1:zou      1:zou         *0.921  0.039  0      0      0.039
    20      1:zou      1:zou         *0.648  0.111  0      0      0.241
    21      1:zou      1:zou         *0.921  0.039  0      0      0.039
    22      1:zou      1:zou         *0.921  0.039  0      0      0.039
    23      1:zou      2:pao      +   0     *0.667  0      0      0.333
    24      1:zou      1:zou         *0.921  0.039  0      0      0.039
    25      1:zou      1:zou         *0.921  0.039  0      0      0.039
    26      1:zou      1:zou         *0.921  0.039  0      0      0.039
    27      1:zou      1:zou         *0.977  0.023  0      0      0    
    28      1:zou      1:zou         *0.884  0.047  0      0      0.07 
    29      1:zou      1:zou         *0.884  0.047  0      0      0.07 
    30      1:zou      1:zou         *0.648  0.111  0      0      0.241
    31      1:zou      1:zou         *0.921  0.039  0      0      0.039
    32      1:zou      1:zou         *0.921  0.039  0      0      0.039
    33      1:zou      1:zou         *0.857  0.061  0      0      0.082
    34      1:zou      1:zou         *0.977  0.023  0      0      0    
    35      1:zou      1:zou         *0.921  0.039  0      0      0.039
    36      1:zou      1:zou         *0.921  0.039  0      0      0.039
    37      1:zou      1:zou         *0.921  0.039  0      0      0.039
    38      1:zou      1:zou         *0.884  0.047  0      0      0.07 
    39      1:zou      1:zou         *0.648  0.111  0      0      0.241
    40      1:zou      1:zou         *0.921  0.039  0      0      0.039
    41      1:zou      1:zou         *0.921  0.039  0      0      0.039
    42      1:zou      1:zou         *0.921  0.039  0      0      0.039
    43      1:zou      1:zou         *0.857  0.061  0      0      0.082
    44      1:zou      1:zou         *0.977  0.023  0      0      0    
    45      1:zou      1:zou         *0.857  0.061  0      0      0.082
    46      1:zou      1:zou         *0.921  0.039  0      0      0.039
    47      1:zou      2:pao      +   0     *1      0      0      0    
    48      1:zou      1:zou         *0.921  0.039  0      0      0.039
    49      1:zou      1:zou         *0.648  0.111  0      0      0.241
    50      1:zou      1:zou         *0.857  0.061  0      0      0.082
    51      1:zou      1:zou         *0.884  0.047  0      0      0.07 
    52      2:pao      2:pao          0.031 *0.969  0      0      0    
    53      2:pao    5:zhuan      +   0      0      0      0     *1    
    54      2:pao      2:pao          0.02  *0.98   0      0      0    
    55      2:pao      2:pao          0.02  *0.98   0      0      0    
    56      2:pao      1:zou      +  *0.857  0.061  0      0      0.082
    57      2:pao      2:pao          0     *0.97   0      0.03   0    
    58      2:pao      1:zou      +  *0.921  0.039  0      0      0.039
    59      2:pao    5:zhuan      +   0      0.25   0      0     *0.75 
    60      2:pao      1:zou      +  *0.957  0.043  0      0      0    
    61      2:pao      2:pao          0     *0.75   0      0.25   0    
    62      2:pao      2:pao          0     *0.97   0      0.03   0    
    63      2:pao      2:pao          0.02  *0.98   0      0      0    
    64      2:pao    5:zhuan      +   0      0.042  0      0     *0.958
    65      2:pao      2:pao          0.02  *0.98   0      0      0    
    66      2:pao      2:pao          0     *0.97   0      0.03   0    
    67      2:pao      2:pao          0.031 *0.969  0      0      0    
    68      2:pao    5:zhuan      +   0      0.111  0      0     *0.889
    69      2:pao      2:pao          0     *0.909  0      0      0.091
    70      2:pao      1:zou      +  *0.648  0.111  0      0      0.241
    71      2:pao    5:zhuan      +   0.077  0      0      0     *0.923
    72      2:pao      2:pao          0     *1      0      0      0    
    73      2:pao      2:pao          0.031 *0.969  0      0      0    
    74      2:pao      1:zou      +  *0.884  0.047  0      0      0.07 
    75      2:pao    5:zhuan      +   0      0.042  0      0     *0.958
    76      2:pao      2:pao          0.031 *0.969  0      0      0    
    77      2:pao    5:zhuan      +   0.077  0      0      0     *0.923
    78      2:pao      2:pao          0     *0.875  0      0      0.125
    79      2:pao      2:pao          0     *0.875  0      0      0.125
    80      2:pao      2:pao          0.176 *0.529  0      0      0.294
    81      2:pao      2:pao          0.031 *0.969  0      0      0    
    82      2:pao      1:zou      +  *0.977  0.023  0      0      0    
    83    5:zhuan      1:zou      +  *0.921  0.039  0      0      0.039
    84    5:zhuan    5:zhuan          0      0.042  0      0     *0.958
    85    5:zhuan    5:zhuan          0      0.042  0      0     *0.958
    86    5:zhuan      1:zou      +  *0.884  0.047  0      0      0.07 
    87    5:zhuan    5:zhuan          0      0.208  0      0     *0.792
    88    5:zhuan    5:zhuan          0      0.051  0      0     *0.949
    89    5:zhuan    5:zhuan          0      0.042  0      0     *0.958
    90    5:zhuan    5:zhuan          0      0.051  0      0     *0.949
    91    5:zhuan    5:zhuan          0.077  0      0      0     *0.923
    92    5:zhuan    5:zhuan          0      0.042  0      0     *0.958
    93    5:zhuan    5:zhuan          0      0.051  0      0     *0.949
    94    5:zhuan    5:zhuan          0      0.042  0      0     *0.958
    95    5:zhuan    5:zhuan          0      0.051  0      0     *0.949
    96    5:zhuan    5:zhuan          0      0.208  0      0     *0.792
    97    5:zhuan      1:zou      +  *0.884  0.047  0      0      0.07 
    98    5:zhuan      2:pao      +   0.02  *0.98   0      0      0    
    99    5:zhuan    5:zhuan          0      0.111  0      0     *0.889
   100    5:zhuan    5:zhuan          0      0.208  0      0     *0.792
   101    5:zhuan    5:zhuan          0      0      0      0     *1    
   102    5:zhuan    5:zhuan          0      0.042  0      0     *0.958
   103    5:zhuan      1:zou      +  *0.648  0.111  0      0      0.241
   104    5:zhuan      1:zou      +  *0.648  0.111  0      0      0.241
   105    5:zhuan    5:zhuan          0      0.051  0      0     *0.949
   106    5:zhuan      1:zou      +  *0.648  0.111  0      0      0.241
   107    5:zhuan    5:zhuan          0      0.042  0      0     *0.958
   108    5:zhuan    5:zhuan          0      0.042  0      0     *0.958
   109    5:zhuan    5:zhuan          0      0.111  0      0     *0.889
   110    5:zhuan    5:zhuan          0      0      0      0     *1    
   111    5:zhuan    5:zhuan          0      0.051  0      0     *0.949
   112    5:zhuan    5:zhuan          0      0.042  0      0     *0.958
   113     3:jing     3:jing          0      0     *1      0      0    
   114     3:jing     3:jing          0      0     *1      0      0    
   115     3:jing     3:jing          0      0     *1      0      0    
   116     3:jing     3:jing          0      0     *1      0      0    
   117     3:jing     3:jing          0      0     *1      0      0    
   118     3:jing     3:jing          0      0     *1      0      0    
   119     3:jing     3:jing          0      0     *1      0      0    
   120     3:jing     3:jing          0      0     *1      0      0    
   121     3:jing     3:jing          0      0     *1      0      0    
   122     3:jing     3:jing          0      0     *1      0      0    
   123     3:jing     3:jing          0      0     *1      0      0    
   124     3:jing     3:jing          0      0     *1      0      0    
   125     3:jing     3:jing          0      0     *1      0      0    
   126     3:jing     3:jing          0      0     *1      0      0    
   127     3:jing     3:jing          0      0     *1      0      0    
   128     3:jing     3:jing          0      0     *1      0      0    
   129     3:jing     3:jing          0      0     *1      0      0    
   130     3:jing     3:jing          0      0     *1      0      0    
   131     3:jing     3:jing          0      0     *1      0      0    
   132   4:diedao   4:diedao          0      0      0     *1      0    
   133   4:diedao   4:diedao          0      0      0     *1      0    
   134   4:diedao   4:diedao          0      0      0     *1      0    
     1      1:zou      1:zou         *0.89   0.066  0      0      0.044
     2      1:zou      1:zou         *0.9    0.067  0      0.033  0    
     3      1:zou      1:zou         *0.89   0.066  0      0      0.044
     4      1:zou      1:zou         *0.89   0.066  0      0      0.044
     5      1:zou      1:zou         *0.89   0.066  0      0      0.044
     6      1:zou      1:zou         *1      0      0      0      0    
     7      1:zou      1:zou         *0.89   0.066  0      0      0.044
     8      1:zou      1:zou         *0.89   0.066  0      0      0.044
     9      1:zou      1:zou         *0.89   0.066  0      0      0.044
    10      1:zou      1:zou         *0.89   0.066  0      0      0.044
    11      1:zou      2:pao      +   0     *0.972  0      0.028  0    
    12      1:zou      1:zou         *0.89   0.066  0      0      0.044
    13      1:zou      1:zou         *0.968  0.032  0      0      0    
    14      1:zou      1:zou         *0.968  0.032  0      0      0    
    15      1:zou      1:zou         *0.89   0.066  0      0      0.044
    16      1:zou      1:zou         *0.89   0.066  0      0      0.044
    17      1:zou      1:zou         *0.89   0.066  0      0      0.044
    18      1:zou      1:zou         *0.89   0.066  0      0      0.044
    19      1:zou      1:zou         *0.89   0.066  0      0      0.044
    20      1:zou      1:zou         *0.89   0.066  0      0      0.044
    21      1:zou      1:zou         *0.89   0.066  0      0      0.044
    22      1:zou      1:zou         *1      0      0      0      0    
    23      1:zou      1:zou         *0.89   0.066  0      0      0.044
    24      1:zou      1:zou         *0.89   0.066  0      0      0.044
    25      1:zou      1:zou         *0.89   0.066  0      0      0.044
    26      1:zou      1:zou         *0.89   0.066  0      0      0.044
    27      1:zou      1:zou         *0.75   0.25   0      0      0    
    28      1:zou      1:zou         *0.89   0.066  0      0      0.044
    29      1:zou      1:zou         *0.89   0.066  0      0      0.044
    30      1:zou      1:zou         *0.89   0.066  0      0      0.044
    31      1:zou      1:zou         *0.65   0.35   0      0      0    
    32      1:zou      1:zou         *0.89   0.066  0      0      0.044
    33      1:zou      1:zou         *0.89   0.066  0      0      0.044
    34      1:zou      1:zou         *0.89   0.066  0      0      0.044
    35      1:zou      1:zou         *0.89   0.066  0      0      0.044
    36      1:zou      1:zou         *0.89   0.066  0      0      0.044
    37      1:zou      1:zou         *0.89   0.066  0      0      0.044
    38      1:zou      1:zou         *0.89   0.066  0      0      0.044
    39      1:zou      1:zou         *0.89   0.066  0      0      0.044
    40      1:zou      1:zou         *0.89   0.066  0      0      0.044
    41      1:zou    5:zhuan      +   0      0      0      0     *1    
    42      1:zou      1:zou         *0.89   0.066  0      0      0.044
    43      1:zou      1:zou         *0.89   0.066  0      0      0.044
    44      1:zou      1:zou         *0.89   0.066  0      0      0.044
    45      1:zou      1:zou         *0.89   0.066  0      0      0.044
    46      1:zou      1:zou         *1      0      0      0      0    
    47      1:zou      1:zou         *0.89   0.066  0      0      0.044
    48      1:zou      1:zou         *0.89   0.066  0      0      0.044
    49      1:zou      1:zou         *0.968  0.032  0      0      0    
    50      1:zou      1:zou         *0.89   0.066  0      0      0.044
    51      1:zou      1:zou         *0.89   0.066  0      0      0.044
    52      2:pao      2:pao          0     *1      0      0      0    
    53      2:pao      1:zou      +  *0.89   0.066  0      0      0.044
    54      2:pao      1:zou      +  *0.89   0.066  0      0      0.044
    55      2:pao      2:pao          0     *0.867  0      0      0.133
    56      2:pao      2:pao          0     *1      0      0      0    
    57      2:pao      2:pao          0.03  *0.97   0      0      0    
    58      2:pao      2:pao          0.143 *0.643  0      0      0.214
    59      2:pao      2:pao          0     *0.692  0      0      0.308
    60      2:pao      2:pao          0     *0.867  0      0      0.133
    61      2:pao      1:zou      +  *0.89   0.066  0      0      0.044
    62      2:pao      2:pao          0     *0.692  0      0      0.308
    63      2:pao      2:pao          0     *1      0      0      0    
    64      2:pao      2:pao          0.03  *0.97   0      0      0    
    65      2:pao      2:pao          0.071 *0.929  0      0      0    
    66      2:pao      2:pao          0     *1      0      0      0    
    67      2:pao      2:pao          0.03  *0.97   0      0      0    
    68      2:pao      2:pao          0     *1      0      0      0    
    69      2:pao      2:pao          0     *0.692  0      0      0.308
    70      2:pao      1:zou      +  *0.75   0.25   0      0      0    
    71      2:pao      2:pao          0     *1      0      0      0    
    72      2:pao      1:zou      +  *0.89   0.066  0      0      0.044
    73      2:pao    5:zhuan      +   0      0      0      0     *1    
    74      2:pao    5:zhuan      +   0.085  0.021  0      0     *0.894
    75      2:pao      2:pao          0     *1      0      0      0    
    76      2:pao      2:pao          0     *1      0      0      0    
    77      2:pao      2:pao          0.071 *0.929  0      0      0    
    78      2:pao      2:pao          0     *0.692  0      0      0.308
    79      2:pao      1:zou      +  *0.89   0.066  0      0      0.044
    80      2:pao    5:zhuan      +   0      0      0      0     *1    
    81      2:pao    5:zhuan      +   0      0.028  0      0     *0.972
    82      2:pao      1:zou      +  *1      0      0      0      0    
    83    5:zhuan    5:zhuan          0      0.105  0      0     *0.895
    84    5:zhuan      2:pao      +   0     *1      0      0      0    
    85    5:zhuan      1:zou      +  *0.65   0.35   0      0      0    
    86    5:zhuan      2:pao      +   0.143 *0.643  0      0      0.214
    87    5:zhuan    5:zhuan          0      0.028  0      0     *0.972
    88    5:zhuan    5:zhuan          0      0      0      0     *1    
    89    5:zhuan    5:zhuan          0      0.105  0      0     *0.895
    90    5:zhuan    5:zhuan          0      0      0      0     *1    
    91    5:zhuan      1:zou      +  *0.89   0.066  0      0      0.044
    92    5:zhuan      2:pao      +   0     *0.714  0      0      0.286
    93    5:zhuan    5:zhuan          0.085  0.021  0      0     *0.894
    94    5:zhuan    5:zhuan          0.085  0.021  0      0     *0.894
    95    5:zhuan    5:zhuan          0      0      0      0     *1    
    96    5:zhuan    5:zhuan          0      0.105  0      0     *0.895
    97    5:zhuan      2:pao      +   0.143 *0.643  0      0      0.214
    98    5:zhuan      1:zou      +  *0.89   0.066  0      0      0.044
    99    5:zhuan    5:zhuan          0      0.028  0      0     *0.972
   100    5:zhuan    5:zhuan          0.085  0.021  0      0     *0.894
   101    5:zhuan    5:zhuan          0.085  0.021  0      0     *0.894
   102    5:zhuan    5:zhuan          0      0.105  0      0     *0.895
   103    5:zhuan    5:zhuan          0      0      0      0     *1    
   104    5:zhuan    5:zhuan          0.085  0.021  0      0     *0.894
   105    5:zhuan    5:zhuan          0      0      0      0     *1    
   106    5:zhuan    5:zhuan          0      0.028  0      0     *0.972
   107    5:zhuan      1:zou      +  *0.89   0.066  0      0      0.044
   108    5:zhuan    5:zhuan          0      0.105  0      0     *0.895
   109    5:zhuan    5:zhuan          0.085  0.021  0      0     *0.894
   110    5:zhuan    5:zhuan          0      0.028  0      0     *0.972
   111    5:zhuan    5:zhuan          0      0.028  0      0     *0.972
   112    5:zhuan    5:zhuan          0      0.028  0      0     *0.972
   113     3:jing     3:jing          0      0     *1      0      0    
   114     3:jing     3:jing          0      0     *1      0      0    
   115     3:jing     3:jing          0      0     *1      0      0    
   116     3:jing     3:jing          0      0     *1      0      0    
   117     3:jing     3:jing          0      0     *1      0      0    
   118     3:jing     3:jing          0      0     *1      0      0    
   119     3:jing     3:jing          0      0     *1      0      0    
   120     3:jing     3:jing          0      0     *1      0      0    
   121     3:jing     3:jing          0      0     *1      0      0    
   122     3:jing     3:jing          0      0     *1      0      0    
   123     3:jing     3:jing          0      0     *1      0      0    
   124     3:jing     3:jing          0      0     *1      0      0    
   125     3:jing     3:jing          0      0     *1      0      0    
   126     3:jing     3:jing          0      0     *1      0      0    
   127     3:jing     3:jing          0      0     *1      0      0    
   128     3:jing     3:jing          0      0     *1      0      0    
   129     3:jing     3:jing          0      0     *1      0      0    
   130     3:jing     3:jing          0      0     *1      0      0    
   131     3:jing     3:jing          0      0     *1      0      0    
   132   4:diedao      1:zou      +  *0.89   0.066  0      0      0.044
   133   4:diedao     3:jing      +   0      0     *1      0      0    
   134   4:diedao   4:diedao          0      0      0     *1      0    
     1      1:zou      1:zou         *0.885  0.054  0      0      0.06 
     2      1:zou      1:zou         *0.893  0.071  0      0.036  0    
     3      1:zou      1:zou         *0.885  0.054  0      0      0.06 
     4      1:zou      1:zou         *0.885  0.054  0      0      0.06 
     5      1:zou      1:zou         *0.922  0.078  0      0      0    
     6      1:zou      1:zou         *0.922  0.078  0      0      0    
     7      1:zou      1:zou         *0.885  0.054  0      0      0.06 
     8      1:zou      1:zou         *0.922  0.078  0      0      0    
     9      1:zou    5:zhuan      +   0      0      0      0     *1    
    10      1:zou      1:zou         *0.885  0.054  0      0      0.06 
    11      1:zou      1:zou         *0.893  0.071  0      0.036  0    
    12      1:zou      1:zou         *0.893  0.071  0      0.036  0    
    13      1:zou      1:zou         *0.885  0.054  0      0      0.06 
    14      1:zou      1:zou         *0.885  0.054  0      0      0.06 
    15      1:zou      1:zou         *0.564  0.308  0      0      0.128
    16      1:zou      1:zou         *0.922  0.078  0      0      0    
    17      1:zou      2:pao      +   0.091 *0.909  0      0      0    
    18      1:zou      1:zou         *0.75   0.25   0      0      0    
    19      1:zou      1:zou         *0.885  0.054  0      0      0.06 
    20      1:zou      1:zou         *0.885  0.054  0      0      0.06 
    21      1:zou      1:zou         *0.922  0.078  0      0      0    
    22      1:zou      1:zou         *0.885  0.054  0      0      0.06 
    23      1:zou    5:zhuan      +   0      0.186  0      0     *0.814
    24      1:zou      1:zou         *0.893  0.071  0      0.036  0    
    25      1:zou      1:zou         *0.885  0.054  0      0      0.06 
    26      1:zou      1:zou         *0.885  0.054  0      0      0.06 
    27      1:zou      1:zou         *0.667  0.333  0      0      0    
    28      1:zou      1:zou         *0.885  0.054  0      0      0.06 
    29      1:zou      1:zou         *0.885  0.054  0      0      0.06 
    30      1:zou      1:zou         *0.885  0.054  0      0      0.06 
    31      1:zou      1:zou         *0.885  0.054  0      0      0.06 
    32      1:zou    5:zhuan      +   0      0.333  0      0     *0.667
    33      1:zou      1:zou         *0.885  0.054  0      0      0.06 
    34      1:zou      1:zou         *0.885  0.054  0      0      0.06 
    35      1:zou      1:zou         *0.922  0.078  0      0      0    
    36      1:zou      1:zou         *0.885  0.054  0      0      0.06 
    37      1:zou      1:zou         *0.885  0.054  0      0      0.06 
    38      1:zou      1:zou         *0.85   0.05   0      0      0.1  
    39      1:zou      1:zou         *0.564  0.308  0      0      0.128
    40      1:zou      1:zou         *0.922  0.078  0      0      0    
    41      1:zou      1:zou         *0.885  0.054  0      0      0.06 
    42      1:zou      1:zou         *0.885  0.054  0      0      0.06 
    43      1:zou      1:zou         *0.885  0.054  0      0      0.06 
    44      1:zou      1:zou         *0.885  0.054  0      0      0.06 
    45      1:zou      1:zou         *0.885  0.054  0      0      0.06 
    46      1:zou      1:zou         *0.885  0.054  0      0      0.06 
    47      1:zou      1:zou         *0.922  0.078  0      0      0    
    48      1:zou      1:zou         *0.85   0.05   0      0      0.1  
    49      1:zou      1:zou         *0.885  0.054  0      0      0.06 
    50      1:zou      1:zou         *0.922  0.078  0      0      0    
    51      1:zou      1:zou         *0.85   0.05   0      0      0.1  
    52      2:pao      2:pao          0     *1      0      0      0    
    53      2:pao      2:pao          0     *0.857  0      0      0.143
    54      2:pao      2:pao          0     *1      0      0      0    
    55      2:pao      2:pao          0     *1      0      0      0    
    56      2:pao      1:zou      +  *0.885  0.054  0      0      0.06 
    57      2:pao      1:zou      +  *0.885  0.054  0      0      0.06 
    58      2:pao      2:pao          0     *1      0      0      0    
    59      2:pao      2:pao          0     *1      0      0      0    
    60      2:pao      2:pao          0     *1      0      0      0    
    61      2:pao      2:pao          0     *1      0      0      0    
    62      2:pao      1:zou      +  *0.564  0.308  0      0      0.128
    63      2:pao      2:pao          0     *1      0      0      0    
    64      2:pao      2:pao          0     *1      0      0      0    
    65      2:pao      2:pao          0     *1      0      0      0    
    66      2:pao      2:pao          0.091 *0.909  0      0      0    
    67      2:pao    5:zhuan      +   0      0      0      0     *1    
    68      2:pao      1:zou      +  *0.667  0.333  0      0      0    
    69      2:pao      1:zou      +  *0.885  0.054  0      0      0.06 
    70      2:pao    5:zhuan      +   0      0.186  0      0     *0.814
    71      2:pao    5:zhuan      +   0      0.186  0      0     *0.814
    72      2:pao      2:pao          0     *1      0      0      0    
    73      2:pao      1:zou      +  *0.667  0.333  0      0      0    
    74      2:pao      1:zou      +  *0.75   0.25   0      0      0    
    75      2:pao      2:pao          0     *1      0      0      0    
    76      2:pao      1:zou      +  *0.564  0.308  0      0      0.128
    77      2:pao      2:pao          0     *1      0      0      0    
    78      2:pao    5:zhuan      +   0      0      0      0     *1    
    79      2:pao      2:pao          0     *1      0      0      0    
    80      2:pao      2:pao          0     *1      0      0      0    
    81      2:pao      2:pao          0     *0.9    0      0      0.1  
    82      2:pao      2:pao          0.031 *0.969  0      0      0    
    83    5:zhuan    5:zhuan          0      0      0      0     *1    
    84    5:zhuan    5:zhuan          0      0      0      0     *1    
    85    5:zhuan      2:pao      +   0     *1      0      0      0    
    86    5:zhuan    5:zhuan          0      0.186  0      0     *0.814
    87    5:zhuan    5:zhuan          0      0.186  0      0     *0.814
    88    5:zhuan      1:zou      +  *0.667  0      0      0      0.333
    89    5:zhuan    5:zhuan          0      0.186  0      0     *0.814
    90    5:zhuan      1:zou      +  *0.885  0.054  0      0      0.06 
    91    5:zhuan    5:zhuan          0      0      0      0     *1    
    92    5:zhuan      1:zou      +  *0.85   0.05   0      0      0.1  
    93    5:zhuan    5:zhuan          0      0.035  0      0     *0.965
    94    5:zhuan    5:zhuan          0      0.035  0      0     *0.965
    95    5:zhuan    5:zhuan          0      0.333  0      0     *0.667
    96    5:zhuan    5:zhuan          0      0.035  0      0     *0.965
    97    5:zhuan    5:zhuan          0.061  0      0      0     *0.939
    98    5:zhuan    5:zhuan          0      0      0      0     *1    
    99    5:zhuan    5:zhuan          0      0      0      0     *1    
   100    5:zhuan    5:zhuan          0      0      0      0     *1    
   101    5:zhuan    5:zhuan          0      0.035  0      0     *0.965
   102    5:zhuan    5:zhuan          0      0.035  0      0     *0.965
   103    5:zhuan    5:zhuan          0      0.035  0      0     *0.965
   104    5:zhuan      1:zou      +  *0.885  0.054  0      0      0.06 
   105    5:zhuan    5:zhuan          0      0.035  0      0     *0.965
   106    5:zhuan      1:zou      +  *0.564  0.308  0      0      0.128
   107    5:zhuan    5:zhuan          0      0      0      0     *1    
   108    5:zhuan    5:zhuan          0      0.186  0      0     *0.814
   109    5:zhuan      2:pao      +   0.091 *0.909  0      0      0    
   110    5:zhuan    5:zhuan          0      0.186  0      0     *0.814
   111    5:zhuan      1:zou      +  *0.564  0.308  0      0      0.128
   112    5:zhuan      1:zou      +  *0.667  0      0      0      0.333
   113     3:jing     3:jing          0      0     *1      0      0    
   114     3:jing     3:jing          0      0     *1      0      0    
   115     3:jing     3:jing          0      0     *1      0      0    
   116     3:jing     3:jing          0      0     *1      0      0    
   117     3:jing     3:jing          0      0     *1      0      0    
   118     3:jing     3:jing          0      0     *1      0      0    
   119     3:jing     3:jing          0      0     *1      0      0    
   120     3:jing     3:jing          0      0     *1      0      0    
   121     3:jing     3:jing          0      0     *1      0      0    
   122     3:jing     3:jing          0      0     *1      0      0    
   123     3:jing     3:jing          0      0     *1      0      0    
   124     3:jing     3:jing          0      0     *1      0      0    
   125     3:jing     3:jing          0      0     *1      0      0    
   126     3:jing     3:jing          0      0     *1      0      0    
   127     3:jing     3:jing          0      0     *1      0      0    
   128     3:jing     3:jing          0      0     *1      0      0    
   129     3:jing     3:jing          0      0     *1      0      0    
   130     3:jing     3:jing          0      0     *1      0      0    
   131     3:jing     3:jing          0      0     *1      0      0    
   132   4:diedao   4:diedao          0      0      0     *1      0    
   133   4:diedao   4:diedao          0      0      0     *1      0    
   134   4:diedao      2:pao      +   0     *1      0      0      0    
     1      1:zou      1:zou         *0.911  0.052  0      0.003  0.034
     2      1:zou      1:zou         *0.911  0.052  0      0.003  0.034
     3      1:zou      2:pao      +   0     *1      0      0      0    
     4      1:zou      1:zou         *0.917  0.028  0      0      0.056
     5      1:zou      1:zou         *0.911  0.052  0      0.003  0.034
     6      1:zou      1:zou         *0.911  0.052  0      0.003  0.034
     7      1:zou      1:zou         *0.911  0.052  0      0.003  0.034
     8      1:zou      1:zou         *1      0      0      0      0    
     9      1:zou      1:zou         *0.911  0.052  0      0.003  0.034
    10      1:zou      1:zou         *0.911  0.052  0      0.003  0.034
    11      1:zou      1:zou         *1      0      0      0      0    
    12      1:zou      1:zou         *0.911  0.052  0      0.003  0.034
    13      1:zou      1:zou         *0.917  0.028  0      0      0.056
    14      1:zou      1:zou         *0.917  0.028  0      0      0.056
    15      1:zou      1:zou         *1      0      0      0      0    
    16      1:zou      1:zou         *0.911  0.052  0      0.003  0.034
    17      1:zou      1:zou         *0.911  0.052  0      0.003  0.034
    18      1:zou    5:zhuan      +   0.019  0.077  0      0     *0.904
    19      1:zou      1:zou         *0.917  0.042  0      0      0.042
    20      1:zou      1:zou         *0.917  0.042  0      0      0.042
    21      1:zou      1:zou         *0.917  0.028  0      0      0.056
    22      1:zou      1:zou         *0.911  0.052  0      0.003  0.034
    23      1:zou      1:zou         *0.911  0.052  0      0.003  0.034
    24      1:zou      1:zou         *0.911  0.052  0      0.003  0.034
    25      1:zou      1:zou         *0.87   0.13   0      0      0    
    26      1:zou      1:zou         *0.911  0.052  0      0.003  0.034
    27      1:zou      2:pao      +   0.19  *0.81   0      0      0    
    28      1:zou      2:pao      +   0     *1      0      0      0    
    29      1:zou      1:zou         *1      0      0      0      0    
    30      1:zou    5:zhuan      +   0.019  0.077  0      0     *0.904
    31      1:zou      1:zou         *0.75   0      0      0      0.25 
    32      1:zou      1:zou         *0.911  0.052  0      0.003  0.034
    33      1:zou    5:zhuan      +   0      0.111  0      0     *0.889
    34      1:zou      1:zou         *0.911  0.052  0      0.003  0.034
    35      1:zou      2:pao      +   0.2   *0.8    0      0      0    
    36      1:zou      1:zou         *1      0      0      0      0    
    37      1:zou      1:zou         *0.911  0.052  0      0.003  0.034
    38      1:zou    5:zhuan      +   0      0.111  0      0     *0.889
    39      1:zou      1:zou         *0.87   0.13   0      0      0    
    40      1:zou      1:zou         *0.911  0.052  0      0.003  0.034
    41      1:zou      1:zou         *0.911  0.052  0      0.003  0.034
    42      1:zou      1:zou         *0.911  0.052  0      0.003  0.034
    43      1:zou    5:zhuan      +   0.167  0.167  0      0     *0.667
    44      1:zou      1:zou         *0.917  0.028  0      0      0.056
    45      1:zou      2:pao      +   0     *1      0      0      0    
    46      1:zou      1:zou         *0.911  0.052  0      0.003  0.034
    47      1:zou      1:zou         *1      0      0      0      0    
    48      1:zou      1:zou         *0.5    0      0      0.5    0    
    49      1:zou      1:zou         *0.87   0.13   0      0      0    
    50      1:zou      1:zou         *0.911  0.052  0      0.003  0.034
    51      1:zou      1:zou         *1      0      0      0      0    
    52      2:pao      2:pao          0.033 *0.967  0      0      0    
    53      2:pao      2:pao          0.033 *0.967  0      0      0    
    54      2:pao      2:pao          0     *1      0      0      0    
    55      2:pao      2:pao          0     *1      0      0      0    
    56      2:pao      2:pao          0     *1      0      0      0    
    57      2:pao      2:pao          0     *0.923  0      0      0.077
    58      2:pao    5:zhuan      +   0.019  0.077  0      0     *0.904
    59      2:pao      2:pao          0     *1      0      0      0    
    60      2:pao      2:pao          0     *1      0      0      0    
    61      2:pao    5:zhuan      +   0      0      0      0     *1    
    62      2:pao      2:pao          0.033 *0.967  0      0      0    
    63      2:pao      2:pao          0.033 *0.967  0      0      0    
    64      2:pao      2:pao          0.033 *0.967  0      0      0    
    65      2:pao      2:pao          0     *1      0      0      0    
    66      2:pao      1:zou      +  *0.87   0.13   0      0      0    
    67      2:pao      2:pao          0     *1      0      0      0    
    68      2:pao      2:pao          0.033 *0.967  0      0      0    
    69      2:pao      2:pao          0.19  *0.81   0      0      0    
    70      2:pao      1:zou      +  *0.911  0.052  0      0.003  0.034
    71      2:pao      2:pao          0     *1      0      0      0    
    72      2:pao      2:pao          0     *1      0      0      0    
    73      2:pao      2:pao          0     *1      0      0      0    
    74      2:pao    5:zhuan      +   0      0.024  0      0     *0.976
    75      2:pao      2:pao          0     *0.857  0      0      0.143
    76      2:pao      1:zou      +  *0.917  0.042  0      0      0.042
    77      2:pao      1:zou      +  *0.911  0.052  0      0.003  0.034
    78      2:pao      2:pao          0     *1      0      0      0    
    79      2:pao    5:zhuan      +   0.018  0.211  0      0     *0.772
    80      2:pao      1:zou      +  *0.911  0.052  0      0.003  0.034
    81      2:pao    5:zhuan      +   0      0      0      0     *1    
    82      2:pao      2:pao          0     *1      0      0      0    
    83    5:zhuan    5:zhuan          0      0.024  0      0     *0.976
    84    5:zhuan    5:zhuan          0      0.024  0      0     *0.976
    85    5:zhuan    5:zhuan          0      0.024  0      0     *0.976
    86    5:zhuan    5:zhuan          0      0.024  0      0     *0.976
    87    5:zhuan    5:zhuan          0      0.024  0      0     *0.976
    88    5:zhuan    5:zhuan          0      0.024  0      0     *0.976
    89    5:zhuan    5:zhuan          0      0.024  0      0     *0.976
